w,a1,a2,a3
-0.5,0.09090909090909091,0.047619047619047616,0.0196078431372549
-0.498998998998999,0.09085515402965792,0.04751548188178533,0.01935629991785406
-0.497997997997998,0.09069340526046221,0.04720523106378618,0.018608114319999525
-0.496996996996997,0.0904240301402081,0.04668963243982522,0.017382453693027964
-0.495995995995996,0.09004733767145805,0.045970908453968264,0.01571071838990383
-0.494994994994995,0.0895637599779745,0.04505215722694736,0.013635738550159527
-0.493993993993994,0.08897385182551312,0.04393733932279096,0.011210678465940954
-0.492992992992993,0.0882782900065838,0.04263126083072993,0.008497676515646277
-0.491991991991992,0.08747787258984091,0.04113955283400501,0.0055662554056583975
-0.49099099099099097,0.0865735180349081,0.03946864735249699,0.0024915433306013936
-0.48998998998999,0.08556626417359198,0.03762574986104612,0.0006476485032662503
-0.488988988988989,0.084457267058577,0.035618808499826585,0.003770842872020886
-0.487987987987988,0.08324779968084194,0.033456480107172525,0.006797956504081227
-0.486986986986987,0.08193925055717544,0.031148093218715114,0.009651350378132794
-0.48598598598598597,0.0805331221893114,0.028703608189569095,0.012257817937648019
-0.484984984984985,0.07903102939633952,0.02613357460851009,0.014550460385109773
-0.483983983983984,0.07743469752218543,0.023449086184588127,0.01647040109144104
-0.482982982982983,0.07574596052009039,0.020661733297369006,0.017968295253347928
-0.481981981981982,0.07396675891614861,0.0177835534119304,0.01900559614931654
-0.48098098098098097,0.07209913765409615,0.014826979568836756,0.019555545550882108
-0.47997997997998,0.07014524382366964,0.011804787167528624,0.019603862881689468
-0.478978978978979,0.06810732427497941,0.008730039268853526,0.019149115403519525
-0.477977977977978,0.06598772312146815,0.005616030648814915,0.018202759849994973
-0.476976976976977,0.0637888791341416,0.0024762308409712374,0.016788854317743008
-0.47597597597597596,0.06151332302987663,0.0006757735906975848,0.014943447647340666
-0.474974974974975,0.05916367465673153,0.003826337303302194,0.012713661767737904
-0.47397397397397395,0.05674264007928921,0.006961814703450485,0.01015649032767399
-0.47297297297297297,0.054253008567173466,0.010068618503793715,0.007337344195557387
-0.471971971971972,0.051697649489986994,0.013133278058726567,0.004328380889914382
-0.47097097097097096,0.04907950912201774,0.01614249723107455,0.001206660540247017
-0.46996996996997,0.046401607360159886,0.019083211543467652,0.0019478245687756307
-0.46896896896896895,0.043667034358592025,0.021942644371007236,0.0050541965625934444
-0.46796796796796797,0.04087894708384301,0.024708361935765165,0.008032762372347232
-0.466966966966967,0.03804056579396305,0.027368326868595104,0.01080705504319016
-0.46596596596596596,0.035155170445604206,0.029910950109676922,0.01330579374961104
-0.464964964964965,0.032226097032894,0.03232514092610558,0.015464712357076292
-0.46396396396396394,0.029256733862050556,0.034600354832692214,0.01722820969600523
-0.46296296296296297,0.02625051776577451,0.03672663921087423,0.01855077923842448
-0.46196196196196193,0.023210930261507744,0.03869467643025605,0.019398181475007503
-0.46096096096096095,0.020141493657715327,0.040495824287744904,0.019748328838248758
-0.45995995995996,0.017045767112406917,0.04212215359047458,0.019591860339876477
-0.45895895895895894,0.013927342648163248,0.04356648272068742,0.018932391001027473
-0.45795795795795796,0.010789841127986586,0.044822409033398763,0.0177864294508402
-0.45695695695695693,0.007636908196332987,0.04588433695097389,0.016182965541621443
-0.45595595595595595,0.004472210189736368,0.046747502632619765,0.014162738260586701
-0.45495495495495497,0.0012994300214492329,0.04740799511120972,0.011777202394291898
-0.45395395395395394,0.0018777369554236097,0.04786277380471743,0.00908722011347006
-0.45295295295295296,0.005055587101806178,0.04810968232481343,0.006161510695979984
-0.4519519519519519,0.008230412659038901,0.04814745852078803,0.0030748978135539135
-0.45095095095095095,0.011398505923233682,0.04797574071284032,9.36009850313852e-05
-0.44994994994994997,0.01455616342305882,0.047595070084868636,0.003262793889610787
-0.44894894894894893,0.017699690096405568,0.04700688922312509,0.006351392005905555
-0.44794794794794796,0.020825403461379642,0.04621353680339082,0.009280091037797266
-0.4469469469469469,0.023929637777075397,0.04521823844563876,0.011973604251647563
-0.44594594594594594,0.027008748189587064,0.04402509377138344,0.014362594691933494
-0.44494494494494496,0.030059114858733315,0.042639059715023145,0.016385457139243928
-0.44394394394394393,0.033077147060978786,0.041065930156379535,0.017989904089874244
-0.44294294294294295,0.03605928726406635,0.03931231195727927,0.019134314995697545
-0.4419419419419419,0.0390020151689006,0.037385597500314754,0.01978881400815979
-0.44094094094094094,0.04190185171424409,0.03529393384283494,0.019936048369285704
-0.43993993993993996,0.044755363039840554,0.03304618861364238,0.01957164721023933
-0.4389389389389389,0.047559164403605116,0.030651912793806805,0.01870434866091714
-0.43793793793793795,0.05030992404857456,0.02812130053632993,0.017355791634939107
-0.4369369369369369,0.053004367015363596,0.025465146192104965,0.015559977217924875
-0.43593593593593594,0.05563927889591819,0.0226947987216158,0.013362413034641476
-0.43493493493493496,0.0582115095244255,0.019822113683087228,0.010818962086898875
-0.4339339339339339,0.06071797660129805,0.016859402998273817,0.007994425131519404
-0.43293293293293295,0.06315566924622075,0.013819382706716102,0.00496089251230625
-0.4319319319319319,0.06552165147631937,0.010715118928041674,0.0017959072961891017
-0.43093093093093093,0.06781306560558546,0.0075599722597517295,0.001419513560870262
-0.42992992992992995,0.07002713556177871,0.004367540844826236,0.00460294960398593
-0.4289289289289289,0.07216117011710108,0.0011516023493957966,0.0076726860047423755
-0.42792792792792794,0.07421256602903846,0.0020739449043523776,0.010549807540120377
-0.4269269269269269,0.07617881108785131,0.005295141400970871,0.013160223856352715
-0.42592592592592593,0.07805748706728857,0.008498026238353006,0.015436574130330031
-0.42492492492492495,0.07984627257521086,0.01166869702445511,0.017319962249559992
-0.4239239239239239,0.08154294580089885,0.014793369609707983,0.01876147789221229
-0.42292292292292294,0.08314538715594069,0.017858437401073898,0.01972346429463377
-0.4219219219219219,0.0846515818056953,0.020850530005092707,0.020180499908559423
-0.4209209209209209,0.08605962208844865,0.023756570949746484,0.02012006841198377
-0.41991991991991995,0.087367709819491,0.026563834238536015,0.019542899462184793
-0.4189189189189189,0.08857415847746619,0.029259999494721523,0.018462970965641857
-0.41791791791791794,0.08967739527046893,0.031833205459287896,0.016907172274262448
-0.4169169169169169,0.0906759630794854,0.03427210161283318,0.014914636380529242
-0.4159159159159159,0.09156852227690768,0.036565897699140704,0.012535757654987717
-0.41491491491491495,0.09235385241797951,0.03870441093673499,0.009830919731446057
-0.4139139139139139,0.09303085380316424,0.040678110714187726,0.006868965592094198
-0.41291291291291293,0.09359854890956254,0.042478160575239385,0.0037254485454399837
-0.4119119119119119,0.09405608368964528,0.04409645731095981,0.0004807084538134199
-0.4109109109109109,0.09440272873570422,0.04552566698812542,0.002782177891943246
-0.40990990990990994,0.09463788030856692,0.04675925775565192,0.005979520052797812
-0.4089089089089089,0.0947610612292657,0.04779152928427619,0.009029156705901445
-0.4079079079079079,0.09477192163249194,0.04861763870870655,0.01185256312852467
-0.4069069069069069,0.0946702395808166,0.04923362295599219,0.01437686944072651
-0.4059059059059059,0.09445592153880356,0.04963641735895186,0.016536737828739833
-0.40490490490490494,0.09412900270628866,0.04982387046904485,0.01827605047979869
-0.4039039039039039,0.09368964721025358,0.049794754998962104,0.01954936470672693
-0.40290290290290287,0.09313814815486304,0.04954877484146389,0.020323097608133684
-0.4019019019019019,0.09247492752939454,0.0490865681274673,0.020576409450006806
-0.4009009009009009,0.0917005359739349,0.0484097063030805,0.02030176259408625
-0.39989989989989994,0.09081565240287225,0.04752068922202862,0.019505141044357386
-0.3988988988988989,0.08982108348636306,0.04642293626679841,0.01820592432605198
-0.39789789789789787,0.08871776299010291,0.0451207735285816,0.01643641823201947
-0.3968968968968969,0.08750675097388598,0.04361941709284601,0.014241053744528593
-0.3958958958958959,0.08618923284958575,0.041924952493883436,0.011675273942612491
-0.3948948948948949,0.08476651829934188,0.04004431041799951,0.008804136718527169
-0.3938938938938939,0.0832400400548856,0.03798523875100598,0.0057006684463372335
-0.39289289289289286,0.08161135253908838,0.035756271081309694,0.002444010182950939
-0.3918918918918919,0.07988213037096795,0.033366691785090524,0.0008825966288966676
-0.3908908908908909,0.07805416673552466,0.030826497834725405,0.004193933784975608
-0.3898898898898899,0.07612937161994159,0.02814635748577807,0.007404985196608017
-0.3888888888888889,0.07410976991780946,0.02533756601133107,0.010433115416430924
-0.38788788788788786,0.07199749940319392,0.02241199866528516,0.01320019209574542
-0.3868868868868869,0.06979480857649926,0.019382061068311755,0.015634597965443718
-0.3858858858858859,0.06750405438421957,0.016260637221439923,0.01767308063368802
-0.38488488488488487,0.06512769981480818,0.013061035362704644,0.01926239252083682
-0.3838838838838839,0.06266831137303315,0.009796931891857518,0.020360678505842392
-0.38288288288288286,0.0601285564353156,0.006482313596772453,0.020938575207277446
-0.3818818818818819,0.05751120048868419,0.0031314184228651825,0.02097999310674211
-0.3808808808808809,0.054819104256098226,0.00024132496648157252,0.020482560759069086
-0.37987987987987987,0.052055220711023455,0.0036213585848376734,0.019457718919175585
-0.3788788788788789,0.04922259198427261,0.006994057214741353,0.017930461331945747
-0.37787787787787785,0.04632434616622306,0.010344790935045929,0.015938727952422387
-0.3768768768768769,0.043363694007665876,0.013658987819383576,0.013532465259086851
-0.3758758758758759,0.04034392552263074,0.01692219654022071,0.010772376865826595
-0.37487487487487486,0.03726840649665328,0.02012014861275121,0.007728395609576895
-0.3738738738738739,0.03414057490406362,0.02323882001377082,0.004477915485906065
-0.37287287287287285,0.03096393723795622,0.026264491912704305,0.001103828038404948
-0.3718718718718719,0.027742064756621977,0.029183810255051876,0.0023075870815965705
-0.3708708708708709,0.02447858965030853,0.03198384394276447,0.005668863814099827
-0.36986986986986986,0.02117720113227031,0.03465214136134008,0.008893587580694789
-0.3688688688688689,0.017841641458150648,0.03717678500980334,0.011898612226641082
-0.36786786786786785,0.014475701877829025,0.03954644399713106,0.01460619925952574
-0.36686686686686687,0.011083218523943904,0.04175042417709593,0.016946024463324858
-0.3658658658658659,0.007668068241368797,0.04377871570288653,0.018857000207736233
-0.36486486486486486,0.004234164362009926,0.045622037793194535,0.020288866341723805
-0.3638638638638639,0.000785452429332457,0.04727188051268373,0.021203508344392726
-0.36286286286286284,0.0026740941228973222,0.048720543381834375,0.021575968261271047
-0.36186186186186187,0.006140478333110473,0.04996117064405087,0.021395121708033153
-0.3608608608608609,0.00960968411108428,0.050987783031558286,0.020664002681155015
-0.35985985985985985,0.013077680669104108,0.05179530588594939,0.0193997668624509
-0.3588588588588588,0.016540426980453455,0.05237959350423673,0.017633293314825292
-0.35785785785785784,0.019993876260509094,0.052737449596817955,0.01540843370590018
-0.35685685685685686,0.02343398046569378,0.05286664375983575,0.012780927228798783
-0.3558558558558559,0.026856694805490418,0.052765923880962205,0.009817007984318645
-0.35485485485485485,0.030257982262726694,0.052435024414526084,0.006591739525636267
-0.3538538538538538,0.03363381811729429,0.05187467047913831,0.003187118341040785
-0.35285285285285284,0.03698019446847026,0.0510865777484416,0.00031000592070836103
-0.35185185185185186,0.04029312475098714,0.050073448123243824,0.0038101408510897773
-0.3508508508508509,0.04356864824000698,0.048838961191020665,0.00722343617939523
-0.34984984984984985,0.046802834540149135,0.047387761496548504,0.010461984962294415
-0.3488488488488488,0.04999178805372309,0.0457254416651273,0.01344208226412649
-0.34784784784784784,0.05313165242334616,0.04385852143742211,0.01608638342946054
-0.34684684684684686,0.056218614944118554,0.04179442269237145,0.01832590643289279
-0.3458458458458459,0.059248910940572705,0.039541440551685646,0.020101826599025655
-0.34484484484484484,0.06221882810362867,0.03710871067625195,0.02136701712540979
-0.3438438438438438,0.06512471078281469,0.03450617288111541,0.022087295186025434
-0.34284284284284283,0.0679629642290619,0.03174453121158133,0.022242340784732438
-0.34184184184184185,0.07073005878341393,0.02883521063828693,0.02182626378181771
-0.3408408408408409,0.07342253400704095,0.02579031054382988,0.020847803424698528
-0.33983983983983984,0.07603700274799843,0.022622555187546058,0.019330154050902913
-0.3388388388388388,0.07857015514022754,0.01934524134831807,0.01731042016105507
-0.33783783783783783,0.08101876253035918,0.015972183357801796,0.014838713539319278
-0.33683683683683685,0.08337968132793769,0.012517655748085839,0.011976914286721265
-0.33583583583583587,0.08564985677476757,0.008996333748542461,0.008797126293812612
-0.33483483483483484,0.08782632662914092,0.00542323187642375,0.005379865590544295
-0.3338338338338338,0.08990622476080104,0.0018136408745475076,0.0018120269687695533
-0.3328328328328328,0.09188678465257201,0.0018169367428164747,0.0018153199041417048
-0.33183183183183185,0.09376534280467314,0.0054528522680509246,0.005409249125920631
-0.33083083083083087,0.09553934203783015,0.009078377228868593,0.008877353070428973
-0.32982982982982983,0.0972063346913896,0.012677770389687053,0.012130112247832997
-0.3288288288288288,0.09876398571275392,0.01623534504448791,0.015083199893863416
-0.3278278278278278,0.10021007563453979,0.019735536317782864,0.017659662116042328
-0.32682682682682684,0.10154250343599244,0.023162968189328958,0.01979191738793333
-0.32582582582582587,0.10275928928528279,0.026502519958431465,0.02142352359090592
-0.32482482482482483,0.10385857715944431,0.02973939186505524,0.022510666549308417
-0.3238238238238238,0.10483863733881803,0.03285916958754577,0.023023330947878843
-0.3228228228228228,0.10569786877299939,0.03584788734050507,0.022946122486925895
-0.32182182182182184,0.10643480131540792,0.038692089301278494,0.022278718922114842
-0.32082082082082086,0.10704809782372664,0.04137888909959064,0.021035937030493286
-0.31981981981981983,0.10753655612360125,0.04389602711204849,0.019247412305516676
-0.3188188188188188,0.10789911083310996,0.046231925311538635,0.01695689806380527
-0.3178178178178178,0.10813483504566315,0.048375739430898554,0.014221200393871902
-0.31681681681681684,0.10824294186913473,0.050317408210669594,0.011108774743031569
-0.3158158158158158,0.10822278581916121,0.05204769951211378,0.007698018683068168
-0.3148148148148148,0.10807386406470382,0.053558253089051766,0.004075303292581958
-0.3138138138138138,0.1077958175241023,0.054841619825315956,0.0003327924397443972
-0.3128128128128128,0.10738843181001816,0.05589129725874489,0.003433895135190834
-0.31181181181181183,0.10685163802179272,0.05670176122752352,0.007128121800838462
-0.3108108108108108,0.10618551338393341,0.057268493490341556,0.010654703196572546
-0.3098098098098098,0.10539028172955814,0.05758800518814029,0.013922353514720978
-0.3088088088088088,0.10446631382782379,0.05765785603216581,0.01684604126835892
-0.3078078078078078,0.10341412755449289,0.05747666912049036,0.019349194935596833
-0.30680680680680683,0.10223438790497086,0.05704414130313249,0.021365701451523222
-0.3058058058058058,0.10092790684930417,0.05636104903422615,0.02284164556900072
-0.3048048048048048,0.0994956430287821,0.05542924966835392,0.023736744506817526
-0.3038038038038038,0.09793870129396448,0.05425167817708704,0.024025439890844373
-0.3028028028028028,0.09625833208410049,0.052832339280834195,0.023697617582494005
-0.30180180180180183,0.09445593064809085,0.051176295010291306,0.02275893536442093
-0.3008008008008008,0.09253303610728336,0.04928964773096458,0.02123074838033173
-0.2997997997997998,0.09049133036058206,0.04717951868336803,0.01914963245367081
-0.2987987987987988,0.0883326368324895,0.04485402211045382,0.01656651567923463
-0.2977977977977978,0.08605891906488862,0.0423222350626129,0.013545438731240247
-0.2967967967967968,0.08367227915351061,0.039594162989009925,0.010161973903867897
-0.2957957957957958,0.08117495603021546,0.03668070124208451,0.006501341749889553
-0.29479479479479476,0.07856932359236854,0.033593592639688766,0.002656272081071178
-0.2937937937937938,0.0758578886807479,0.03034538124637609,0.0012753371649898313
-0.2927927927927928,0.07304328890759468,0.026949362551861873,0.005192904279768583
-0.2917917917917918,0.07012829033655638,0.02341953024047156,0.008995728519327017
-0.2907907907907908,0.0671157850164496,0.019770519760455272,0.012585570034403646
-0.28978978978978975,0.06400878837090879,0.01601754891630269,0.01586917911574701
-0.2887887887887888,0.06081043644615067,0.012176355720588818,0.018760709858805256
-0.2877877877877878,0.05752398301922872,0.008263133754336514,0.02118395599488986
-0.2867867867867868,0.054152796569307333,0.00429446529635667,0.023074350878844945
-0.2857857857857858,0.05070035711463105,0.0002872524924940818,0.02438067936562491
-0.28478478478478475,0.04717025291800642,0.0037413531549492416,0.02506645641079692
-0.28378378378378377,0.0435661770637602,0.007774022689089243,0.02511093551839562
-0.2827827827827828,0.03989192390927165,0.011793322696017102,0.02450971942847017
-0.2817817817817818,0.036151385414324444,0.015781789096548596,0.023274955454667352
-0.2807807807807808,0.03234854735164567,0.019722001426007583,0.021435108397841726
-0.27977977977977975,0.02848748540213725,0.023596657292467845,0.019034314709658672
-0.27877877877877877,0.02457236113843011,0.027388646701734735,0.016131332287886713
-0.2777777777777778,0.020607417900516196,0.03108112593648263,0.012798110679728336
-0.2767767767767768,0.016596976567338148,0.03465759067738097,0.009118016284905384
-0.2757757757757758,0.012545431228323915,0.03810194805577105,0.005183756133480768
-0.27477477477477474,0.008457244758979458,0.0413985873304573,0.0010950517316570616
-0.27377377377377377,0.00433694430474915,0.04453244888548084,0.0030438788849204007
-0.2727727727727728,0.00018911667746956325,0.04748909125130016,0.007126967552213279
-0.2717717717717718,0.00398159633115994,0.05025475585863539,0.0110490038838765
-0.2707707707707708,0.008170502714573463,0.05281642924228837,0.01470833580942663
-0.26976976976976974,0.01237286509018332,0.05516190242150446,0.018009493693209606
-0.26876876876876876,0.01658390560737755,0.0572798271938819,0.02086567056347318
-0.2677677677677678,0.020798810919882928,0.05915976909139903,0.023200994289433393
-0.2667667667667668,0.025012737217625754,0.06079225675977476,0.02495253250566276
-0.26576576576576577,0.0292208153131552,0.06216882753609838,0.026071977580046965
-0.26476476476476474,0.033418155777619724,0.06328206901434659,0.026526966796730184
-0.26376376376376376,0.037599854121223006,0.06412565640403269,0.026302001986015382
-0.2627627627627628,0.04176099601302276,0.06469438550374508,0.02539894285485813
-0.2617617617617618,0.045896662534887556,0.0649842011286533,0.023837059004770664
-0.26076076076076077,0.050001935464369686,0.06499222084911219,0.021652636799248913
-0.25975975975975973,0.05407190258121446,0.06471675391625205,0.01889814857852759
-0.25875875875875876,0.058101662992178775,0.06415731526975592,0.015641002927919145
-0.2577577577577578,0.06208633246880523,0.06331463454292369,0.011961905501379948
-0.2567567567567568,0.06602104879276081,0.062190660000392625,0.007952870007311808
-0.25575575575575576,0.06990097710333792,0.06078855736459728,0.0037149281179560084
-0.25475475475475473,0.07372131524167776,0.059112703507972764,0.0006444049712131993
-0.25375375375375375,0.0774772990862866,0.05716867500908084,0.005013846039309606
-0.2527527527527528,0.08116420787438655,0.05496323159209686,0.009281172109714493
-0.25175175175175174,0.08477736950365462,0.05250429449037199,0.013336089923568906
-0.25075075075075076,0.08831216580889734,0.04980091979604559,0.0170730735696771
-0.24974974974974973,0.09176403780822885,0.046863266878708947,0.020394097595635464
-0.24874874874874875,0.09512849091331747,0.04370256197703536,0.023211195150213214
-0.24774774774774777,0.09840110009830355,0.040331057087741914,0.025448774739690226
-0.24674674674674674,0.10157751502200266,0.036761984296425694,0.02704563492920911
-0.24574574574574576,0.10465346509804446,0.03300950571440309,0.027956623648442352
-0.24474474474474472,0.1076247645076355,0.029088659204747527,0.028153897492205027
-0.24374374374374375,0.11048731714966803,0.025015300099133865,0.02762774632763341
-0.24274274274274277,0.11323712152295261,0.020806039124732126,0.02638695938530501
-0.24174174174174173,0.1158702755353951,0.016478176777302875,0.02445872055177295
-0.24074074074074076,0.11838298123500307,0.012049634392577998,0.021888032506293127
-0.23973973973973972,0.12077154945766476,0.0075388821830896435,0.018736681354334716
-0.23873873873873874,0.12303240438671226,0.0029648645215970388,0.01508176520009653
-0.23773773773773776,0.12516208801935427,0.0016530772347693242,0.01101382136865845
-0.23673673673673673,0.12715726453513831,0.006295284073739279,0.0066345974459574
-0.23573573573573575,0.12901472456168903,0.010941860493961755,0.002054520680587999
-0.23473473473473472,0.1307313893330543,0.015572757181972284,0.002610071659745917
-0.23373373373373374,0.1323043147360823,0.020167854866034795,0.007239871875431136
-0.23273273273273276,0.1337306952403528,0.024707049006040222,0.011715637470661795
-0.23173173173173173,0.1350078677072842,0.029170334973224823,0.01592124599742944
-0.23073073073073075,0.13613331507414747,0.03353789336940405,0.019746691257802856
-0.22972972972972971,0.13710466990882655,0.03779017513280002,0.023090943978561027
-0.22872872872872874,0.13791971783128062,0.04190798607629807,0.025864602998729922
-0.22772772772772776,0.13857640079778383,0.04587257050421795,0.027992267838395847
-0.22672672672672672,0.1390728202441406,0.04966569355531709,0.029414570136394983
-0.22572572572572575,0.13940724008420266,0.05326972192287508,0.030089809699363975
-0.2247247247247247,0.1395780895601469,0.05666770260723845,0.029995150596561708
-0.22372372372372373,0.13958396594110478,0.05984343936218261,0.02912734362777472
-0.2227227227227227,0.1394236370668775,0.06278156650383135,0.02750295331714362
-0.22172172172172172,0.1390960437336118,0.0654676197596456,0.0251580800502979
-0.22072072072072074,0.13860030191845588,0.06788810384512353,0.022147580763705526
-0.2197197197197197,0.1379357048403666,0.07003055646731564,0.018543804391458685
-0.21871871871871873,0.1371017248543902,0.07188360846700198,0.014434870750905604
-0.2177177177177177,0.13609801517689468,0.07343703982536719,0.00992253338590833
-0.21671671671671672,0.13492441143939066,0.0746818312761935,0.005119677780037983
-0.21571571571571574,0.1335809330687373,0.07561021128090646,0.00014751601849498534
-0.2147147147147147,0.13206778449169285,0.07621569814121076,0.004867452837031929
-0.21371371371371373,0.13038535616194066,0.07649313704246571,0.009796640910537207
-0.2127127127127127,0.1285342254078806,0.07643873184030514,0.0145126478515728
-0.21171171171171171,0.1265151570996547,0.07605007142324165,0.01889253239144168
-0.21071071071071074,0.12432910413404133,0.07532615050502293,0.022820995640434508
-0.2097097097097097,0.12197720773603149,0.07426738472224963,0.026193394253701343
-0.20870870870870872,0.11946079757607336,0.07287561993514678,0.02891850528821205
-0.2077077077077077,0.11678139170214583,0.07115413565230105,0.030920970282272708
-0.2067067067067067,0.11394069628600709,0.06910764252356234,0.032143353682797235
-0.20570570570570573,0.1109406051831327,0.06674227386905475,0.03254776004590195
-0.2047047047047047,0.10778319930605254,0.06406557123627075,0.03211696522081397
-0.20370370370370372,0.10447074581095928,0.06108646400141755,0.03085502873376832
-0.2027027027027027,0.1010056970976551,0.057815243055476126,0.028787367522720875
-0.2017017017017017,0.09739068962308464,0.054263528639706994,0.02596028471496421
-0.20070070070070073,0.0936285425288718,0.05044423241949408,0.022439960949755523
-0.1996996996996997,0.08972225608347784,0.046371513909377174,0.018310929479205394
-0.19869869869869872,0.08567500993976647,0.04206073138577915,0.013674069584516372
-0.19769769769769768,0.08149016120894431,0.0375283874471684,0.008644165380803101
-0.1966966966966967,0.07717124235203597,0.032792069404180384,0.0033470885286249817
-0.19569569569569567,0.07272195889022104,0.02787038470435999,0.0020833265747465255
-0.1946946946946947,0.06814618693554628,0.022782891617698788,0.007508638152186863
-0.1936936936936937,0.06344797054370219,0.017550025429841274,0.012789299462584157
-0.19269269269269268,0.058631518890733446,0.012193020409709461,0.017788220332117032
-0.1916916916916917,0.053701203275722864,0.006733827837210924,0.022374297595402357
-0.19069069069069067,0.048661553951666846,0.0011950303945914044,0.02642582424703981
-0.1896896896896897,0.04351725678693453,0.004400246758180089,0.02983368939715962
-0.1886886886886887,0.03827314975986169,0.010028427888012767,0.03250428566606996
-0.18768768768768768,0.03293421928921804,0.01566558122285161,0.034362047347237815
-0.1866866866866867,0.027505596403434966,0.021287515751924342,0.03535155136387829
-0.18568568568568566,0.021992552751651216,0.026869879916839153,0.03543912353969007
-0.18468468468468469,0.016400496459800358,0.032388261808004776,0.034613904749110344
-0.1836836836836837,0.01073496783511129,0.03781829047199499,0.03288834481588307
-0.18268268268268267,0.005001634922556184,0.04313573792813241,0.03029810626558981
-0.1816816816816817,0.0007937110830628538,0.04831662148678782,0.02690137485657747
-0.18068068068068066,0.006645160565566841,0.05333730595767447,0.022777588845132604
-0.17967967967967968,0.01254669035240077,0.05817460533381227,0.018025613807039393
-0.1786786786786787,0.01849216871206636,0.06280588353584969,0.012761404161747496
-0.17767767767767767,0.02447536047972359,0.06720915380209683,0.007115205960649322
-0.1766766766766767,0.030489932306562807,0.07136317631190882,0.0012283676603758343
-0.17567567567567566,0.036529458028427136,0.07524755363402547,0.004750163812975414
-0.17467467467467468,0.042587424149020565,0.0788428235970331,0.010667575673831756
-0.1736736736736737,0.04865723543293801,0.08213054918635448,0.016371057891277914
-0.17267267267267267,0.05473222060360703,0.08509340508096785,0.02171171078263127
-0.1716716716716717,0.060805638141145,0.08771526045348588,0.026548392619199453
-0.17067067067067065,0.06687068217500869,0.08998125766916346,0.030751408818147107
-0.16966966966966968,0.07292048846620586,0.09187788653288544,0.034205947329516546
-0.1686686686686687,0.07894814047375716,0.09339305374812465,0.03681517030370355
-0.16766766766766766,0.08494667549998003,0.09451614726822534,0.038502879927755175
-0.16666666666666669,0.09090909090909069,0.09523809523809519,0.03921568627451014
-0.16566566566566565,0.0968283504135293,0.09555141924342152,0.03892461688705424
-0.16466466466466467,0.10269739042233,0.09545028160480355,0.037626121341897564
-0.1636636636636637,0.10850912644579477,0.0949305264756224,0.03534243887321246
-0.16266266266266266,0.11425645955064938,0.09398971452500697,0.032121312937038196
-0.16166166166166168,0.11993228285979361,0.09262715101078053,0.028035052960209583
-0.16066066066066065,0.12552948809071818,0.09084390707173856,0.02317896004783326
-0.15965965965965967,0.13104097212658097,0.08864283409389566,0.017669149700988526
-0.15865865865865864,0.1364596436139146,0.08602857103137333,0.011639820210895227
-0.15765765765765766,0.14177842958086945,0.08300754458927523,0.005240029947413661
-0.15665665665665668,0.14699028206988937,0.07958796220311494,0.0013699401284800387
-0.15565565565565564,0.15208818477865563,0.07577979777702122,0.008022551071354779
-0.15465465465465467,0.15706515970313692,0.07159477017094748,0.01454720078091646
-0.15365365365365363,0.1619142737765517,0.06704631445532853,0.020774545261155023
-0.15265265265265265,0.16662864549803272,0.062149545979999214,0.026540838158707544
-0.15165165165165168,0.1712014515447919,0.056921217332528265,0.03169217874999345
-0.15065065065065064,0.17562593336156368,0.05137966828941634,0.036088559614236494
-0.14964964964964966,0.17989540372112547,0.04554476889165391,0.039607609047733264
-0.14864864864864863,0.18400325324969782,0.03943785580389037,0.042147929777683786
-0.14764764764764765,0.18794295691104185,0.03308166214380173,0.043631944587804374
-0.14664664664664667,0.19170808044309834,0.026500240995022496,0.044008170873860726
-0.14564564564564564,0.19529228674103988,0.01971888284318909,0.04325285964518878
-0.14464464464464466,0.19868934218064024,0.012764027200042159,0.041370949763280894
-0.14364364364364363,0.20189312287590802,0.005663168705120086,0.03839630489771655
-0.14264264264264265,0.20489762086497415,0.0015552419817892252,0.03439121838103073
-0.14164164164164167,0.20769695021827939,0.008861902161689326,0.029445189425738323
-0.14064064064064064,0.21028535306315968,0.016226765593679884,0.023672992577633577
-0.13963963963963966,0.212657205518995,0.023619155131065245,0.017212080360339353
-0.13863863863863862,0.21480702353715603,0.031007879099868563,0.01021937636076021
-0.13763763763763764,0.2167294686400511,0.038361351005790065,0.0028675320718132935
-0.13663663663663667,0.2184193535536672,0.045647712139565914,0.004659264768475632
-0.13563563563563563,0.21987164772807102,0.052834956636113116,0.01216983020368473
-0.13463463463463465,0.2210814827404389,0.059891058529875286,0.019470762272686685
-0.13363363363363362,0.22204415757527102,0.06678410033747802,0.026371339827325816
-0.13263263263263264,0.22275514377655325,0.07348240268917247,0.032688419820261175
-0.1316316316316316,0.22321009046673207,0.07995465452271087,0.038251209380020725
-0.13063063063063063,0.22340482922748076,0.08617004334720473,0.042905790517986965
-0.12962962962962965,0.2233353788373546,0.0920983850803001,0.04651927991642079
-0.12862862862862862,0.22299794986154636,0.09771025295959687,0.048983513850941
-0.12762762762762764,0.22238894908909015,0.10297710502872907,0.05021815875306449
-0.1266266266266266,0.2215049838129786,0.10787140969989534,0.050173160993930294
-0.12562562562562563,0.22034286594880903,0.11236676889787409,0.04883046487676351
-0.12462462462462465,0.2188996159876991,0.11643803829572039,0.04620494520939104
-0.12362362362362361,0.21717246677936675,0.120061444159354,0.04234451978208139
-0.12262262262262263,0.21515886714140972,0.1232146963271484,0.037329427149364276
-0.1216216216216216,0.21285648529097714,0.12587709686136297,0.03127067582302245
-0.12062062062062062,0.21026321209517826,0.1280296439207981,0.024307691821295538
-0.11961961961961964,0.20737716413673157,0.12965513041838242,0.016605211971011367
-0.11861861861861861,0.20419668659152534,0.13073823704343904,0.008349489912519237
-0.11761761761761763,0.20072035591492138,0.13126561924611813,0.000256100084742168
-0.1166166166166166,0.1969469823338051,0.1312259878008284,0.008995960093999663
-0.11561561561561562,0.1928756121415613,0.13061018258641405,0.017647550886243677
-0.11461461461461464,0.18850552979332302,0.12941123924322634,0.02598693293267197
-0.1136136136136136,0.18383625979902743,0.1276244483910515,0.033794430972943476
-0.11261261261261263,0.17886756841198762,0.125247407117009,0.04086028195598081
-0.1116116116116116,0.1735994651108738,0.12228006246892272,0.04699012445301755
-0.11061061061061062,0.1680322038731879,0.11872474671722026,0.05201018942963426
-0.10960960960960964,0.16216628423849289,0.11458620417701879,0.055772057549478136
-0.1086086086086086,0.15600245215986047,0.10987160941162079,0.0581568568860107
-0.10760760760760762,0.14954170064218295,0.10459057666905594,0.059078786873996855
-0.10660660660660659,0.14278527016618894,0.09875516043445821,0.058487869291404336
-0.10560560560560561,0.135734648897205,0.09237984701286929,0.05637184470001523
-0.10460460460460463,0.12839157267788745,0.08548153708934456,0.0527571526942825
-0.1036036036036036,0.12075802480435845,0.07807951924596336,0.04770895605658828
-0.10260260260260262,0.11283623558537145,0.0701954344483126,0.04133019198584329
-0.10160160160160159,0.1046286816843234,0.061853231547161665,0.03375965740887933
-0.10060060060060061,0.09613808524414823,0.05307911387423556,0.025169159427436357
-0.09959959959959963,0.08736741279529786,0.04390147704406874,0.01575978561193038
-0.0985985985985986,0.07831987394724442,0.03435083810683254,0.005757371542076703
-0.09759759759759762,0.06899891986411635,0.024459756229567687,0.004592735855434519
-0.09659659659659658,0.05940824152528191,0.014262745115359304,0.01503150155041272
-0.0955955955955956,0.04955176777190821,0.0037961774015370115,0.025292478115876524
-0.09459459459459457,0.039433663140692285,0.006901818691205623,0.03510838630101359
-0.0935935935935936,0.029058325486192044,0.01779147015682034,0.04421784278592813
-0.09259259259259262,0.018430383393344758,0.028831477118014242,0.05237207103580141
-0.09159159159159158,0.007554693381986338,0.039979137497338495,0.059341428676453555
-0.0905905905905906,0.003563663094639417,0.05119047805922385,0.06492158634160344
-0.08958958958958957,0.014919382855206909,0.06242039141125672,0.068939198520409
-0.08858858858858859,0.02650694439707859,0.07362277852863824,0.07125691649095639
-0.08758758758758761,0.03832061150197547,0.08475069634291646,0.07177760679308028
-0.08658658658658658,0.05035443703778855,0.09575650991470035,0.07044765560981826
-0.0855855855855856,0.06260226695360364,0.10659204869034969,0.0672592595394011
-0.08458458458458457,0.07505774446483733,0.11720876632461238,0.06225162611532719
-0.08358358358358359,0.08771431442517737,0.12755790353489,0.05551103256454927
-0.08258258258258261,0.10056522788188307,0.13759065343844015,0.047169718115145975
-0.08158158158158157,0.11360354681079185,0.1472583288112676,0.03740361305838762
-0.0805805805805806,0.1268221490272315,0.15651253069692364,0.026428936084137086
-0.07957957957957956,0.14021373326887568,0.1653053177848717,0.01449771947173525
-0.07857857857857858,0.15377082444638604,0.1735893759715498,0.0018923488554494433
-0.0775775775775776,0.16748577905757314,0.18131818751285167,0.011080770169430428
-0.07657657657657657,0.18135079076060592,0.1884461991743815,0.02409828301221401
-0.0755755755755756,0.19535789610168058,0.19492898878564552,0.03682753853301642
-0.07457457457457456,0.20949898039240542,0.20072342960624368,0.04893464972735986
-0.07357357357357358,0.2237657837319979,0.20578785191616364,0.06009277607156362
-0.0725725725725726,0.23814990716928405,0.21008220124845908,0.06999043181152886
-0.07157157157157157,0.2526428189993209,0.2135681926908572,0.07833961981983209
-0.07057057057057059,0.2672358611893587,0.2162094606932213,0.08488359065577507
-0.06956956956956956,0.2819202559287315,0.21797170383021663,0.08940403121826003
-0.06856856856856858,0.2966871122971219,0.21882282398298233,0.09172749684981793
-0.06756756756756754,0.3115274330455744,0.21873305942004803,0.09173091478849617
-0.06656656656656657,0.32643212148446793,0.2176751112760937,0.08934600521993669
-0.06556556556556559,0.34139198847260904,0.21562426294738432,0.08456248849748976
-0.06456456456456455,0.35639775950145985,0.21255849194474594,0.07742997291830978
-0.06356356356356357,0.3714400818684494,0.2084585737687216,0.06805844622428522
-0.06256256256256254,0.38650953193323123,0.2033081773969546,0.056617325117516014
-0.06156156156156156,0.4015966224506342,0.19709395200085003,0.04333304985645033
-0.06056056056056058,0.4166918099740243,0.18980560453700893,0.028485244697675056
-0.05955955955955955,0.43178550232268015,0.18143596788878724,0.01240149880465625
-0.05855855855855857,0.4468680661067426,0.17198105926443952,0.004549144521682938
-0.05755755755755754,0.4619298343032437,0.16144012859059204,0.021963870601746597
-0.05655655655655656,0.47696111387663825,0.14981569667314845,0.039414798758405804
-0.05555555555555558,0.4919521934372517,0.1371135829319916,0.056458534148466584
-0.054554554554554546,0.5068933509309794,0.1233429225509799,0.07264636660207656
-0.05355355355355357,0.5217748613535611,0.10851617292052464,0.08753489788218387
-0.052552552552552534,0.5365870044827228,0.09264910928640795,0.10069686425936415
-0.051551551551551555,0.5513200726214316,0.07576080955535296,0.11173191181448525
-0.05055055055055058,0.5659643783455294,0.0578736282449526,0.12027707772894258
-0.04954954954954954,0.580510262248965,0.039013159602925465,0.126016732178165
-0.048548548548548565,0.594948100679853,0.019208189958009998,0.12869174236488726
-0.04754754754754753,0.6092683134606088,0.0015093605979089998,0.1281076326446184
-0.04654654654654655,0.6234613715853663,0.02310450705974107,0.12414153241185132
-0.045545545545545574,0.6375178048879627,0.04553927871783785,0.11674772611437509
-0.04454454454454454,0.651428209673736,0.0687728085156855,0.10596164701038134
-0.04354354354354356,0.6651832563084423,0.09276143231139428,0.09190218753659968
-0.04254254254254253,0.6787736967576292,0.11745879776285302,0.07477223377597247
-0.04154154154154155,0.6921903720698148,0.14281598252235006,0.054857368777272014
-0.04054054054054057,0.7054242197969076,0.16878162139350575,0.03252272859493144
-0.03953953953953954,0.7184662813453058,0.19530204207136476,0.008208035042621036
-0.03853853853853856,0.7313077092512118,0.22232140905585202,0.017579130586995593
-0.037537537537537524,0.7439397743737424,0.24978187529944154,0.044271709080275556
-0.036536536536536546,0.756353872999469,0.2776237411219213,0.0712530585166832
-0.03553553553553557,0.7685415338521372,0.30578561989886,0.09786818614627894
-0.03453453453453453,0.7804944250013456,0.33420461000557966,0.12343610787224434
-0.033533533533533555,0.7922043606640878,0.3628164724755089,0.14726309826667805
-0.03253253253253252,0.8036633078931392,0.3915558138106344,0.1686565707518154
-0.03153153153153154,0.8148633931463581,0.42035627336245307,0.18693930956824842
-0.03053053053053051,0.8257969087310921,0.44915071468462897,0.2014637628843675
-0.02952952952952953,0.8364563191179696,0.47787142024321333,0.21162610021259412
-0.02852852852852855,0.8468342671184885,0.5064502888572301,0.21687973739380398
-0.027527527527527518,0.8569235799209117,0.5348190352313394,0.21674803886085633
-0.02652652652652654,0.8667172749791172,0.5629093909335245,0.21083591962640147
-0.025525525525525505,0.8762085657491817,0.5906533061641632,0.19884008825157554
-0.024524524524524527,0.8853908672685885,0.6179831516584414,0.1805576965987207
-0.02352352352352355,0.8942578015731167,0.6448319200620916,0.15589319198244908
-0.022522522522522515,0.9028032029465887,0.6711334261205548,0.1248632018200275
-0.021521521521521536,0.9110211229988079,0.6968225050242344,0.08759931934825031
-0.020520520520520502,0.918905835567181,0.7218352082572579,0.04434870063167178
-0.019519519519519524,0.9264518414376478,0.746108996304186,0.004527572927025215
-0.018518518518518545,0.9336538728807314,0.7695829275784448,0.058558366970270795
-0.01751751751751751,0.9405068979986642,0.7921978429477001,0.11716855601424403
-0.016516516516516533,0.9470061248797161,0.8138965452451069,0.17968718395440175
-0.015515515515515499,0.9531470055560363,0.8346239731711794,0.24535758865146937
-0.01451451451451452,0.9589252397614657,0.8543273690088656,0.3133493146085113
-0.013513513513513542,0.9643367784859915,0.8729564395943833,0.38277159968804964
-0.012512512512512508,0.9693778273236567,0.8904635100081569,0.4526881879163206
-0.01151151151151153,0.9740448496109544,0.9068036694739683,0.5221331914243609
-0.010510510510510496,0.9783345693529018,0.9219349089799358,0.5901277011246185
-0.009509509509509517,0.9822439739341862,0.9358182501621439,0.6556968283432826
-0.008508508508508539,0.9857703166129668,0.9484178650206091,0.7178868487210892
-0.007507507507507505,0.9889111187951041,0.9597011860675663,0.7757821155190955
-0.006506506506506526,0.9916641720867918,0.9696390065398373,0.8285214121390251
-0.0055055055055054924,0.9940275401237573,0.9782055703400673,0.87531342316094
-0.004504504504504514,0.9959995601753996,0.98537865140581,0.915451019339153
-0.00350350350350348,0.9975788445224347,0.9911396222407456,0.9483240744630251
-0.0025025025025025016,0.9987642816068147,0.9954735113784839,0.9734305603280047
-0.0015015015015015232,0.9995550369528989,0.9983690495864385,0.9903856996940134
-0.0005005005005004892,0.9999505538590517,0.9998187046549327,0.9989289953376163
0.0005005005005005447,0.9999505538590517,0.9998187046549326,0.998928995337616
0.0015015015015015232,0.9995550369528989,0.9983690495864385,0.9903856996940134
0.0025025025025025016,0.9987642816068147,0.9954735113784839,0.9734305603280047
0.00350350350350348,0.9975788445224347,0.9911396222407456,0.9483240744630251
0.0045045045045044585,0.9959995601753998,0.9853786514058103,0.915451019339155
0.005505505505505548,0.994027540123757,0.9782055703400669,0.8753134231609374
0.006506506506506526,0.9916641720867918,0.9696390065398373,0.8285214121390251
0.007507507507507505,0.9889111187951041,0.9597011860675663,0.7757821155190955
0.008508508508508483,0.9857703166129669,0.9484178650206099,0.7178868487210927
0.009509509509509462,0.982243973934186,0.9358182501621448,0.6556968283432859
0.010510510510510551,0.9783345693529014,0.921934908979935,0.5901277011246149
0.01151151151151153,0.9740448496109544,0.9068036694739683,0.5221331914243609
0.012512512512512508,0.9693778273236567,0.8904635100081569,0.4526881879163206
0.013513513513513487,0.9643367784859918,0.8729564395943842,0.38277159968805347
0.014514514514514465,0.9589252397614663,0.8543273690088667,0.3133493146085151
0.015515515515515554,0.9531470055560358,0.8346239731711785,0.24535758865146567
0.016516516516516533,0.9470061248797161,0.8138965452451069,0.17968718395440175
0.01751751751751751,0.9405068979986642,0.7921978429477001,0.11716855601424403
0.01851851851851849,0.9336538728807318,0.769582927578446,0.05855836697027391
0.019519519519519468,0.9264518414376481,0.7461089963041874,0.004527572927028101
0.020520520520520558,0.9189058355671808,0.7218352082572564,0.044348700631674204
0.021521521521521536,0.9110211229988079,0.6968225050242344,0.08759931934825031
0.022522522522522515,0.9028032029465887,0.6711334261205548,0.1248632018200275
0.023523523523523493,0.8942578015731172,0.6448319200620928,0.1558931919824476
0.02452452452452447,0.885390867268589,0.6179831516584431,0.18055769659871954
0.02552552552552556,0.8762085657491813,0.5906533061641619,0.19884008825157637
0.02652652652652654,0.8667172749791172,0.5629093909335245,0.21083591962640147
0.027527527527527518,0.8569235799209117,0.5348190352313394,0.21674803886085633
0.028528528528528496,0.8468342671184892,0.5064502888572318,0.2168797373938042
0.029529529529529475,0.8364563191179704,0.47787142024321466,0.2116261002125945
0.030530530530530564,0.8257969087310915,0.4491507146846274,0.20146376288436688
0.03153153153153154,0.8148633931463581,0.42035627336245307,0.18693930956824842
0.03253253253253252,0.8036633078931392,0.3915558138106344,0.1686565707518154
0.0335335335335335,0.7922043606640882,0.36281647247551035,0.14726309826667927
0.03453453453453448,0.7804944250013464,0.3342046100055812,0.12343610787224558
0.03553553553553557,0.7685415338521372,0.30578561989886,0.09786818614627894
0.036536536536536546,0.756353872999469,0.2776237411219213,0.0712530585166832
0.037537537537537524,0.7439397743737424,0.24978187529944154,0.044271709080275556
0.0385385385385385,0.7313077092512125,0.22232140905585335,0.017579130586996918
0.03953953953953948,0.7184662813453065,0.19530204207136614,0.0082080350426197
0.04054054054054057,0.7054242197969076,0.16878162139350575,0.03252272859493144
0.04154154154154155,0.6921903720698148,0.14281598252235006,0.054857368777272014
0.04254254254254253,0.6787736967576292,0.11745879776285302,0.07477223377597247
0.043543543543543506,0.6651832563084431,0.09276143231139575,0.09190218753659869
0.044544544544544484,0.6514282096737369,0.06877280851568696,0.10596164701038055
0.045545545545545574,0.6375178048879627,0.04553927871783785,0.11674772611437509
0.04654654654654655,0.6234613715853663,0.02310450705974107,0.12414153241185132
0.04754754754754753,0.6092683134606088,0.0015093605979089998,0.1281076326446184
0.04854854854854851,0.5949481006798539,0.01920818995800874,0.12869174236488734
0.0495495495495496,0.5805102622489642,0.03901315960292648,0.1260167321781647
0.05055055055055058,0.5659643783455294,0.0578736282449526,0.12027707772894258
0.051551551551551555,0.5513200726214316,0.07576080955535296,0.11173191181448525
0.052552552552552534,0.5365870044827228,0.09264910928640795,0.10069686425936415
0.05355355355355351,0.5217748613535621,0.10851617292052385,0.08753489788218463
0.0545545545545546,0.5068933509309788,0.12334292255098066,0.07264636660207563
0.05555555555555558,0.4919521934372517,0.1371135829319916,0.056458534148466584
0.05655655655655656,0.47696111387663825,0.14981569667314845,0.039414798758405804
0.05755755755755754,0.4619298343032437,0.16144012859059204,0.021963870601746597
0.058558558558558516,0.44686806610674346,0.1719810592644389,0.004549144521683946
0.059559559559559605,0.43178550232267937,0.18143596788878766,0.012401498804657218
0.06056056056056058,0.4166918099740243,0.18980560453700893,0.028485244697675056
0.06156156156156156,0.4015966224506342,0.19709395200085003,0.04333304985645033
0.06256256256256254,0.38650953193323123,0.2033081773969546,0.056617325117516014
0.06356356356356352,0.37144008186845023,0.20845857376872132,0.0680584462242847
0.06456456456456461,0.3563977595014589,0.2125584919447462,0.0774299729183102
0.06556556556556559,0.34139198847260904,0.21562426294738432,0.08456248849748976
0.06656656656656657,0.32643212148446793,0.2176751112760937,0.08934600521993669
0.06756756756756754,0.3115274330455744,0.21873305942004803,0.09173091478849617
0.06856856856856852,0.29668711229712275,0.21882282398298245,0.091727496849818
0.06956956956956961,0.28192025592873066,0.21797170383021655,0.08940403121825988
0.07057057057057059,0.2672358611893587,0.2162094606932213,0.08488359065577507
0.07157157157157157,0.2526428189993209,0.2135681926908572,0.07833961981983209
0.07257257257257255,0.23814990716928472,0.2100822012484594,0.06999043181152945
0.07357357357357353,0.2237657837319987,0.20578785191616403,0.060092776071564075
0.07457457457457461,0.2094989803924046,0.2007234296062434,0.04893464972735924
0.0755755755755756,0.19535789610168058,0.19492898878564552,0.03682753853301642
0.07657657657657657,0.18135079076060592,0.1884461991743815,0.02409828301221401
0.07757757757757755,0.1674857790575738,0.18131818751285209,0.011080770169431093
0.07857857857857853,0.1537708244463867,0.17358937597155025,0.0018923488554487625
0.07957957957957962,0.1402137332688749,0.1653053177848713,0.014497719471735948
0.0805805805805806,0.1268221490272315,0.15651253069692364,0.026428936084137086
0.08158158158158157,0.11360354681079185,0.1472583288112676,0.03740361305838762
0.08258258258258255,0.1005652278818839,0.13759065343844065,0.0471697181151453
0.08358358358358353,0.08771431442517828,0.1275579035348907,0.055511032564548576
0.08458458458458462,0.07505774446483675,0.1172087663246118,0.06225162611532754
0.0855855855855856,0.06260226695360364,0.10659204869034969,0.0672592595394011
0.08658658658658658,0.05035443703778855,0.09575650991470035,0.07044765560981826
0.08758758758758756,0.03832061150197609,0.08475069634291708,0.0717776067930801
0.08858858858858853,0.026506944397079176,0.07362277852863883,0.07125691649095646
0.08958958958958962,0.014919382855206364,0.06242039141125611,0.0689391985204089
0.0905905905905906,0.003563663094639417,0.05119047805922385,0.06492158634160344
0.09159159159159158,0.007554693381986338,0.039979137497338495,0.059341428676453555
0.09259259259259256,0.018430383393344008,0.028831477118015002,0.05237207103580178
0.09359359359359354,0.029058325486191295,0.01779147015682119,0.044217842785928774
0.09459459459459463,0.03943366314069281,0.00690181869120505,0.03510838630101311
0.0955955955955956,0.04955176777190821,0.0037961774015370115,0.025292478115876524
0.09659659659659658,0.05940824152528191,0.014262745115359304,0.01503150155041272
0.09759759759759756,0.06899891986411583,0.02445975622956713,0.004592735855435107
0.09859859859859854,0.07831987394724392,0.03435083810683192,0.00575737154207604
0.09959959959959963,0.08736741279529786,0.04390147704406874,0.01575978561193038
0.10060060060060061,0.09613808524414823,0.05307911387423556,0.025169159427436357
0.10160160160160159,0.1046286816843234,0.061853231547161665,0.03375965740887933
0.10260260260260257,0.1128362355853709,0.07019543444831199,0.04133019198584278
0.10360360360360354,0.12075802480435789,0.07807951924596285,0.04770895605658788
0.10460460460460463,0.12839157267788745,0.08548153708934456,0.0527571526942825
0.10560560560560561,0.135734648897205,0.09237984701286929,0.05637184470001523
0.10660660660660659,0.14278527016618894,0.09875516043445821,0.058487869291404336
0.10760760760760757,0.14954170064218267,0.10459057666905555,0.05907878687399672
0.10860860860860866,0.15600245215986078,0.10987160941162104,0.058156856886010695
0.10960960960960964,0.16216628423849289,0.11458620417701879,0.055772057549478136
0.11061061061061062,0.1680322038731879,0.11872474671722026,0.05201018942963426
0.1116116116116116,0.1735994651108738,0.12228006246892272,0.04699012445301755
0.11261261261261257,0.1788675684119873,0.12524740711700896,0.040860281955981376
0.11361361361361366,0.18383625979902776,0.12762444839105153,0.033794430972942845
0.11461461461461464,0.18850552979332302,0.12941123924322634,0.02598693293267197
0.11561561561561562,0.1928756121415613,0.13061018258641405,0.017647550886243677
0.1166166166166166,0.1969469823338051,0.1312259878008284,0.008995960093999663
0.11761761761761758,0.20072035591492118,0.13126561924611818,0.0002561000847426991
0.11861861861861867,0.20419668659152548,0.13073823704343898,0.008349489912519659
0.11961961961961964,0.20737716413673157,0.12965513041838242,0.016605211971011367
0.12062062062062062,0.21026321209517826,0.1280296439207981,0.024307691821295538
0.1216216216216216,0.21285648529097714,0.12587709686136297,0.03127067582302245
0.12262262262262258,0.21515886714140964,0.12321469632714858,0.037329427149364096
0.12362362362362367,0.21717246677936677,0.12006144415935384,0.04234451978208166
0.12462462462462465,0.2188996159876991,0.11643803829572039,0.04620494520939104
0.12562562562562563,0.22034286594880903,0.11236676889787409,0.04883046487676351
0.1266266266266266,0.2215049838129786,0.10787140969989534,0.050173160993930294
0.12762762762762758,0.22238894908909007,0.10297710502872935,0.05021815875306459
0.12862862862862867,0.22299794986154645,0.09771025295959647,0.048983513850940824
0.12962962962962965,0.2233353788373546,0.0920983850803001,0.04651927991642079
0.13063063063063063,0.22340482922748076,0.08617004334720473,0.042905790517986965
0.1316316316316316,0.22321009046673207,0.07995465452271087,0.038251209380020725
0.13263263263263259,0.2227551437765533,0.07348240268917286,0.03268841982026145
0.13363363363363367,0.222044157575271,0.06678410033747763,0.026371339827325316
0.13463463463463465,0.2210814827404389,0.059891058529875286,0.019470762272686685
0.13563563563563563,0.21987164772807102,0.052834956636113116,0.01216983020368473
0.1366366366366366,0.21841935355366726,0.04564771213956636,0.0046592647684759484
0.1376376376376376,0.2167294686400513,0.038361351005790544,0.0028675320718128524
0.13863863863863868,0.21480702353715606,0.031007879099868362,0.01021937636076025
0.13963963963963966,0.212657205518995,0.023619155131065245,0.017212080360339353
0.14064064064064064,0.21028535306315968,0.016226765593679884,0.023672992577633577
0.1416416416416416,0.20769695021827947,0.008861902161689722,0.029445189425738164
0.1426426426426426,0.20489762086497432,0.0015552419817895936,0.03439121838103065
0.14364364364364368,0.20189312287590797,0.005663168705120498,0.038396304897717025
0.14464464464464466,0.19868934218064024,0.012764027200042159,0.041370949763280894
0.14564564564564564,0.19529228674103988,0.01971888284318909,0.04325285964518878
0.14664664664664662,0.19170808044309848,0.02650024099502214,0.04400817087386064
0.1476476476476476,0.18794295691104204,0.03308166214380129,0.04363194458780413
0.14864864864864868,0.18400325324969785,0.039437855803890524,0.04214792977768346
0.14964964964964966,0.17989540372112547,0.04554476889165391,0.039607609047733264
0.15065065065065064,0.17562593336156368,0.05137966828941634,0.036088559614236494
0.15165165165165162,0.1712014515447922,0.056921217332527994,0.03169217874999364
0.1526526526526526,0.16662864549803308,0.06214954597999887,0.02654083815870773
0.1536536536536537,0.16191427377655132,0.0670463144553289,0.020774545261154912
0.15465465465465467,0.15706515970313692,0.07159477017094748,0.01454720078091646
0.15565565565565564,0.15208818477865563,0.07577979777702122,0.008022551071354779
0.15665665665665662,0.1469902820698897,0.07958796220311462,0.0013699401284805485
0.1576576576576576,0.1417784295808699,0.08300754458927508,0.0052400299474132835
0.1586586586586587,0.1364596436139143,0.08602857103137354,0.011639820210895503
0.15965965965965967,0.13104097212658097,0.08864283409389566,0.017669149700988526
0.16066066066066065,0.12552948809071818,0.09084390707173856,0.02317896004783326
0.16166166166166163,0.11993228285979375,0.09262715101078053,0.02803505296020937
0.1626626626626626,0.11425645955064975,0.09398971452500669,0.032121312937037606
0.1636636636636637,0.10850912644579477,0.0949305264756224,0.03534243887321246
0.16466466466466467,0.10269739042233,0.09545028160480355,0.037626121341897564
0.16566566566566565,0.0968283504135293,0.09555141924342152,0.03892461688705424
0.16666666666666663,0.09090909090909131,0.0952380952380952,0.03921568627450961
0.1676676676676676,0.08494667549998039,0.0945161472682255,0.03850287992775562
0.1686686686686687,0.07894814047375716,0.09339305374812465,0.03681517030370355
0.16966966966966968,0.07292048846620586,0.09187788653288544,0.034205947329516546
0.17067067067067065,0.06687068217500869,0.08998125766916346,0.030751408818147107
0.17167167167167163,0.060805638141145445,0.08771526045348588,0.02654839261919937
0.1726726726726726,0.05473222060360718,0.08509340508096794,0.021711710782631885
0.1736736736736737,0.04865723543293801,0.08213054918635448,0.016371057891277914
0.17467467467467468,0.042587424149020565,0.0788428235970331,0.010667575673831756
0.17567567567567566,0.036529458028427136,0.07524755363402547,0.004750163812975414
0.17667667667667664,0.03048993230656314,0.07136317631190918,0.0012283676603754682
0.17767767767767773,0.02447536047972344,0.0672091538020967,0.007115205960649313
0.1786786786786787,0.01849216871206636,0.06280588353584969,0.012761404161747496
0.17967967967967968,0.01254669035240077,0.05817460533381227,0.018025613807039393
0.18068068068068066,0.006645160565566841,0.05333730595767447,0.022777588845132604
0.18168168168168164,0.000793711083063025,0.04831662148678797,0.02690137485657739
0.18268268268268273,0.005001634922556326,0.04313573792813253,0.03029810626558979
0.1836836836836837,0.01073496783511129,0.03781829047199499,0.03288834481588307
0.18468468468468469,0.016400496459800358,0.032388261808004776,0.034613904749110344
0.18568568568568566,0.021992552751651216,0.026869879916839153,0.03543912353969007
0.18668668668668664,0.027505596403434703,0.02128751575192466,0.03535155136387835
0.18768768768768773,0.032934219289218324,0.015665581222851298,0.03436204734723764
0.1886886886886887,0.03827314975986169,0.010028427888012767,0.03250428566606996
0.1896896896896897,0.04351725678693453,0.004400246758180089,0.02983368939715962
0.19069069069069067,0.048661553951666846,0.0011950303945914044,0.02642582424703981
0.19169169169169165,0.05370120327572259,0.006733827837210474,0.02237429759540294
0.19269269269269274,0.05863151889073379,0.0121930204097099,0.01778822033211669
0.1936936936936937,0.06344797054370219,0.017550025429841274,0.012789299462584157
0.1946946946946947,0.06814618693554628,0.022782891617698788,0.007508638152186863
0.19569569569569567,0.07272195889022104,0.02787038470435999,0.0020833265747465255
0.19669669669669665,0.07717124235203578,0.03279206940418006,0.0033470885286246274
0.19769769769769774,0.08149016120894438,0.037528387447168465,0.008644165380803197
0.19869869869869872,0.08567500993976647,0.04206073138577915,0.013674069584516372
0.1996996996996997,0.08972225608347784,0.046371513909377174,0.018310929479205394
0.20070070070070067,0.09362854252887164,0.050444232419493806,0.02243996094975479
0.20170170170170165,0.0973906896230843,0.054263528639706786,0.02596028471496421
0.20270270270270274,0.10100569709765525,0.05781524305547617,0.02878736752272095
0.20370370370370372,0.10447074581095928,0.06108646400141755,0.03085502873376832
0.2047047047047047,0.10778319930605254,0.06406557123627075,0.03211696522081397
0.20570570570570568,0.11094060518313262,0.0667422738690546,0.032547760045901736
0.20670670670670666,0.11394069628600673,0.06910764252356207,0.03214335368279788
0.20770770770770774,0.11678139170214602,0.07115413565230115,0.030920970282272454
0.20870870870870872,0.11946079757607336,0.07287561993514678,0.02891850528821205
0.2097097097097097,0.12197720773603149,0.07426738472224963,0.026193394253701343
0.21071071071071068,0.12432910413404101,0.07532615050502284,0.022820995640434855
0.21171171171171166,0.1265151570996546,0.07605007142324169,0.01889253239144166
0.21271271271271275,0.12853422540788062,0.07643873184030511,0.014512647851572753
0.21371371371371373,0.13038535616194066,0.07649313704246571,0.009796640910537207
0.2147147147147147,0.13206778449169285,0.07621569814121076,0.004867452837031929
0.21571571571571568,0.1335809330687371,0.07561021128090628,0.00014751601849406488
0.21671671671671666,0.13492441143939063,0.07468183127619343,0.005119677780037827
0.21771771771771775,0.13609801517689465,0.07343703982536726,0.009922533385908292
0.21871871871871873,0.1371017248543902,0.07188360846700198,0.014434870750905604
0.2197197197197197,0.1379357048403666,0.07003055646731564,0.018543804391458685
0.2207207207207207,0.1386003019184559,0.06788810384512368,0.022147580763705387
0.22172172172172167,0.13909604373361178,0.06546761975964577,0.02515808005029772
0.22272272272272275,0.13942363706687744,0.0627815665038312,0.027502953317144127
0.22372372372372373,0.13958396594110478,0.05984343936218261,0.02912734362777472
0.2247247247247247,0.1395780895601469,0.05666770260723845,0.029995150596561708
0.2257257257257257,0.13940724008420266,0.05326972192287503,0.030089809699363895
0.22672672672672667,0.13907282024414064,0.04966569355531741,0.029414570136395462
0.22772772772772776,0.13857640079778383,0.04587257050421795,0.027992267838395847
0.22872872872872874,0.13791971783128062,0.04190798607629807,0.025864602998729922
0.22972972972972971,0.13710466990882655,0.03779017513280002,0.023090943978561027
0.2307307307307307,0.13613331507414755,0.03353789336940437,0.01974669125780375
0.23173173173173167,0.1350078677072843,0.029170334973225073,0.015921245997429813
0.23273273273273276,0.1337306952403528,0.024707049006040222,0.011715637470661795
0.23373373373373374,0.1323043147360823,0.020167854866034795,0.007239871875431136
0.23473473473473472,0.1307313893330543,0.015572757181972284,0.002610071659745917
0.2357357357357357,0.12901472456168914,0.010941860493962193,0.0020545206805876954
0.23673673673673679,0.12715726453513826,0.0062952840737392456,0.006634597445957638
0.23773773773773776,0.12516208801935427,0.0016530772347693242,0.01101382136865845
0.23873873873873874,0.12303240438671226,0.0029648645215970388,0.01508176520009653
0.23973973973973972,0.12077154945766476,0.0075388821830896435,0.018736681354334716
0.2407407407407407,0.11838298123500317,0.012049634392577812,0.021888032506292947
0.2417417417417418,0.11587027553539493,0.01647817677730287,0.02445872055177331
0.24274274274274277,0.11323712152295261,0.020806039124732126,0.02638695938530501
0.24374374374374375,0.11048731714966803,0.025015300099133865,0.02762774632763341
0.24474474474474472,0.1076247645076355,0.029088659204747527,0.028153897492205027
0.2457457457457457,0.10465346509804456,0.0330095057144029,0.0279566236484423
0.2467467467467468,0.10157751502200256,0.03676198429642612,0.027045634929208792
0.24774774774774777,0.09840110009830355,0.040331057087741914,0.025448774739690226
0.24874874874874875,0.09512849091331747,0.04370256197703536,0.023211195150213214
0.24974974974974973,0.09176403780822885,0.046863266878708947,0.020394097595635464
0.2507507507507507,0.08831216580889756,0.04980091979604542,0.017073073569677615
0.2517517517517518,0.08477736950365436,0.05250429449037255,0.013336089923568968
0.2527527527527528,0.08116420787438655,0.05496323159209686,0.009281172109714493
0.25375375375375375,0.0774772990862866,0.05716867500908084,0.005013846039309606
0.25475475475475473,0.07372131524167776,0.059112703507972764,0.0006444049712131993
0.2557557557557557,0.06990097710333816,0.060788557364597165,0.0037149281179564395
0.2567567567567568,0.06602104879276081,0.062190660000392625,0.007952870007311808
0.2577577577577578,0.06208633246880523,0.06331463454292369,0.011961905501379948
0.25875875875875876,0.058101662992178775,0.06415731526975592,0.015641002927919145
0.25975975975975973,0.05407190258121446,0.06471675391625205,0.01889814857852759
0.2607607607607607,0.050001935464369936,0.06499222084911274,0.021652636799249544
0.2617617617617618,0.045896662534887556,0.0649842011286533,0.023837059004770664
0.2627627627627628,0.04176099601302276,0.06469438550374508,0.02539894285485813
0.26376376376376376,0.037599854121223006,0.06412565640403269,0.026302001986015382
0.26476476476476474,0.033418155777619724,0.06328206901434659,0.026526966796730184
0.2657657657657657,0.029220815313155176,0.06216882753609832,0.026071977580046847
0.2667667667667668,0.025012737217625754,0.06079225675977476,0.02495253250566276
0.2677677677677678,0.020798810919882928,0.05915976909139903,0.023200994289433393
0.26876876876876876,0.01658390560737755,0.0572798271938819,0.02086567056347318
0.26976976976976974,0.01237286509018332,0.05516190242150446,0.018009493693209606
0.2707707707707707,0.008170502714573917,0.05281642924228884,0.014708335809427235
0.2717717717717718,0.00398159633115994,0.05025475585863539,0.0110490038838765
0.2727727727727728,0.00018911667746956325,0.04748909125130016,0.007126967552213279
0.27377377377377377,0.00433694430474915,0.04453244888548084,0.0030438788849204007
0.27477477477477474,0.008457244758979458,0.0413985873304573,0.0010950517316570616
0.2757757757757757,0.012545431228323453,0.0381019480557714,0.005183756133480643
0.2767767767767768,0.016596976567338148,0.03465759067738097,0.009118016284905384
0.2777777777777778,0.020607417900516196,0.03108112593648263,0.012798110679728336
0.27877877877877877,0.02457236113843011,0.027388646701734735,0.016131332287886713
0.27977977977977975,0.02848748540213725,0.023596657292467845,0.019034314709658672
0.2807807807807807,0.03234854735164567,0.019722001426007548,0.021435108397841556
0.2817817817817818,0.036151385414324444,0.015781789096548596,0.023274955454667352
0.2827827827827828,0.03989192390927165,0.011793322696017102,0.02450971942847017
0.28378378378378377,0.0435661770637602,0.007774022689089243,0.02511093551839562
0.28478478478478475,0.04717025291800642,0.0037413531549492416,0.02506645641079692
0.28578578578578573,0.050700357114630855,0.00028725249249430824,0.02438067936562486
0.2867867867867868,0.054152796569307333,0.00429446529635667,0.023074350878844945
0.2877877877877878,0.05752398301922872,0.008263133754336514,0.02118395599488986
0.2887887887887888,0.06081043644615067,0.012176355720588818,0.018760709858805256
0.28978978978978975,0.06400878837090879,0.01601754891630269,0.01586917911574701
0.29079079079079073,0.06711578501644902,0.01977051976045483,0.01258557003440418
0.2917917917917918,0.07012829033655638,0.02341953024047156,0.008995728519327017
0.2927927927927928,0.07304328890759468,0.026949362551861873,0.005192904279768583
0.2937937937937938,0.0758578886807479,0.03034538124637609,0.0012753371649898313
0.29479479479479476,0.07856932359236854,0.033593592639688766,0.002656272081071178
0.29579579579579574,0.08117495603021524,0.036680701242084494,0.006501341749889765
0.2967967967967968,0.08367227915351061,0.039594162989009925,0.010161973903867897
0.2977977977977978,0.08605891906488862,0.0423222350626129,0.013545438731240247
0.2987987987987988,0.0883326368324895,0.04485402211045382,0.01656651567923463
0.29979979979979976,0.09049133036058157,0.04717951868336785,0.0191496324536709
0.30080080080080074,0.09253303610728332,0.04928964773096492,0.021230748380331215
0.30180180180180183,0.09445593064809085,0.051176295010291306,0.02275893536442093
0.3028028028028028,0.09625833208410049,0.052832339280834195,0.023697617582494005
0.3038038038038038,0.09793870129396448,0.05425167817708704,0.024025439890844373
0.30480480480480476,0.09949564302878193,0.055429249668353935,0.0237367445068181
0.30580580580580585,0.10092790684930411,0.0563610490342263,0.022841645569001083
0.30680680680680683,0.10223438790497086,0.05704414130313249,0.021365701451523222
0.3078078078078078,0.10341412755449289,0.05747666912049036,0.019349194935596833
0.3088088088088088,0.10446631382782379,0.05765785603216581,0.01684604126835892
0.30980980980980977,0.10539028172955817,0.05758800518814068,0.013922353514721804
0.31081081081081086,0.10618551338393331,0.057268493490341583,0.010654703196572808
0.31181181181181183,0.10685163802179272,0.05670176122752352,0.007128121800838462
0.3128128128128128,0.10738843181001816,0.05589129725874489,0.003433895135190834
0.3138138138138138,0.1077958175241023,0.054841619825315956,0.0003327924397443972
0.31481481481481477,0.10807386406470362,0.05355825308905149,0.004075303292582391
0.31581581581581586,0.10822278581916116,0.05204769951211381,0.007698018683068109
0.31681681681681684,0.10824294186913473,0.050317408210669594,0.011108774743031569
0.3178178178178178,0.10813483504566315,0.048375739430898554,0.014221200393871902
0.3188188188188188,0.10789911083310996,0.046231925311538635,0.01695689806380527
0.3198198198198198,0.10753655612360145,0.04389602711204866,0.01924741230551649
0.32082082082082086,0.10704809782372664,0.04137888909959064,0.021035937030493286
0.32182182182182184,0.10643480131540792,0.038692089301278494,0.022278718922114842
0.3228228228228228,0.10569786877299939,0.03584788734050507,0.022946122486925895
0.3238238238238238,0.10483863733881803,0.03285916958754577,0.023023330947878843
0.3248248248248248,0.10385857715944435,0.02973939186505527,0.022510666549308767
0.32582582582582587,0.10275928928528279,0.026502519958431465,0.02142352359090592
0.32682682682682684,0.10154250343599244,0.023162968189328958,0.01979191738793333
0.3278278278278278,0.10021007563453979,0.019735536317782864,0.017659662116042328
0.3288288288288288,0.09876398571275392,0.01623534504448791,0.015083199893863416
0.3298298298298298,0.09720633469138934,0.012677770389686859,0.012130112247832489
0.33083083083083087,0.09553934203783015,0.009078377228868593,0.008877353070428973
0.33183183183183185,0.09376534280467314,0.0054528522680509246,0.005409249125920631
0.3328328328328328,0.09188678465257201,0.0018169367428164747,0.0018153199041417048
0.3338338338338338,0.08990622476080104,0.0018136408745475076,0.0018120269687695533
0.3348348348348348,0.08782632662914096,0.005423231876423434,0.005379865590544438
0.33583583583583587,0.08564985677476757,0.008996333748542461,0.008797126293812612
0.33683683683683685,0.08337968132793769,0.012517655748085839,0.011976914286721265
0.33783783783783783,0.08101876253035918,0.015972183357801796,0.014838713539319278
0.3388388388388388,0.07857015514022754,0.01934524134831807,0.01731042016105507
0.3398398398398398,0.07603700274799843,0.022622555187546058,0.019330154050902913
0.3408408408408409,0.07342253400704095,0.02579031054382988,0.020847803424698528
0.34184184184184185,0.07073005878341393,0.02883521063828693,0.02182626378181771
0.34284284284284283,0.0679629642290619,0.03174453121158133,0.022242340784732438
0.3438438438438438,0.06512471078281469,0.03450617288111541,0.022087295186025434
0.3448448448448448,0.06221882810362898,0.03710871067625161,0.021367017125409775
0.3458458458458459,0.059248910940572705,0.039541440551685646,0.020101826599025655
0.34684684684684686,0.056218614944118554,0.04179442269237145,0.01832590643289279
0.34784784784784784,0.05313165242334616,0.04385852143742211,0.01608638342946054
0.3488488488488488,0.04999178805372309,0.0457254416651273,0.01344208226412649
0.3498498498498498,0.046802834540149434,0.047387761496548254,0.010461984962294352
0.3508508508508509,0.04356864824000698,0.048838961191020665,0.00722343617939523
0.35185185185185186,0.04029312475098714,0.050073448123243824,0.0038101408510897773
0.35285285285285284,0.03698019446847026,0.0510865777484416,0.00031000592070836103
0.3538538538538538,0.03363381811729429,0.05187467047913831,0.003187118341040785
0.3548548548548548,0.030257982262726694,0.052435024414526084,0.006591739525636267
0.3558558558558559,0.026856694805490418,0.052765923880962205,0.009817007984318645
0.35685685685685686,0.02343398046569378,0.05286664375983575,0.012780927228798783
0.35785785785785784,0.019993876260509094,0.052737449596817955,0.01540843370590018
0.3588588588588588,0.016540426980453455,0.05237959350423673,0.017633293314825292
0.3598598598598598,0.01307768066910421,0.05179530588594922,0.01939976686245066
0.3608608608608609,0.00960968411108428,0.050987783031558286,0.020664002681155015
0.36186186186186187,0.006140478333110473,0.04996117064405087,0.021395121708033153
0.36286286286286284,0.0026740941228973222,0.048720543381834375,0.021575968261271047
0.3638638638638638,0.000785452429332457,0.04727188051268373,0.021203508344392726
0.3648648648648649,0.004234164362010052,0.04562203779319435,0.020288866341724512
0.3658658658658659,0.007668068241368797,0.04377871570288653,0.018857000207736233
0.36686686686686687,0.011083218523943904,0.04175042417709593,0.016946024463324858
0.36786786786786785,0.014475701877829025,0.03954644399713106,0.01460619925952574
0.3688688688688688,0.017841641458150526,0.037176785009803474,0.01189861222664209
0.3698698698698699,0.02117720113227031,0.03465214136134008,0.008893587580694789
0.3708708708708709,0.02447858965030853,0.03198384394276447,0.005668863814099827
0.3718718718718719,0.027742064756621977,0.029183810255051876,0.0023075870815965705
0.37287287287287285,0.03096393723795622,0.026264491912704305,0.001103828038404948
0.37387387387387383,0.03414057490406383,0.023238820013771117,0.004477915485905753
0.3748748748748749,0.03726840649665337,0.020120148612750945,0.007728395609576654
0.3758758758758759,0.04034392552263074,0.01692219654022071,0.010772376865826595
0.3768768768768769,0.043363694007665876,0.013658987819383576,0.013532465259086851
0.37787787787787785,0.04632434616622306,0.010344790935045929,0.015938727952422387
0.37887887887887883,0.049222591984272514,0.006994057214741638,0.017930461331945938
0.3798798798798799,0.052055220711023746,0.0036213585848375073,0.019457718919175977
0.3808808808808809,0.054819104256098226,0.00024132496648157252,0.020482560759069086
0.3818818818818819,0.05751120048868419,0.0031314184228651825,0.02097999310674211
0.38288288288288286,0.0601285564353156,0.006482313596772453,0.020938575207277446
0.38388388388388384,0.06266831137303272,0.009796931891857217,0.020360678505842316
0.3848848848848849,0.06512769981480818,0.013061035362704644,0.01926239252083682
0.3858858858858859,0.06750405438421957,0.016260637221439923,0.01767308063368802
0.3868868868868869,0.06979480857649926,0.019382061068311755,0.015634597965443718
0.38788788788788786,0.07199749940319392,0.02241199866528516,0.01320019209574542
0.38888888888888884,0.07410976991780946,0.02533756601133107,0.010433115416430924
0.38988988988988993,0.07612937161994192,0.028146357485778387,0.007404985196607187
0.3908908908908909,0.07805416673552466,0.030826497834725405,0.004193933784975608
0.3918918918918919,0.07988213037096795,0.033366691785090524,0.0008825966288966676
0.39289289289289286,0.08161135253908838,0.035756271081309694,0.002444010182950939
0.39389389389389384,0.08324004005488539,0.037985238751006005,0.0057006684463365665
0.39489489489489493,0.0847665182993419,0.040044310417999655,0.0088041367185274
0.3958958958958959,0.08618923284958575,0.041924952493883436,0.011675273942612491
0.3968968968968969,0.08750675097388598,0.04361941709284601,0.014241053744528593
0.39789789789789787,0.08871776299010291,0.0451207735285816,0.01643641823201947
0.39889889889889885,0.08982108348636306,0.04642293626679841,0.018205924326051857
0.39989989989989994,0.09081565240287225,0.04752068922202862,0.019505141044357386
0.4009009009009009,0.0917005359739349,0.0484097063030805,0.02030176259408625
0.4019019019019019,0.09247492752939454,0.0490865681274673,0.020576409450006806
0.40290290290290287,0.09313814815486304,0.04954877484146389,0.020323097608133684
0.40390390390390385,0.09368964721025358,0.049794754998962104,0.01954936470672693
0.40490490490490494,0.09412900270628866,0.04982387046904485,0.01827605047979869
0.4059059059059059,0.09445592153880356,0.04963641735895186,0.016536737828739833
0.4069069069069069,0.0946702395808166,0.04923362295599219,0.01437686944072651
0.4079079079079079,0.09477192163249194,0.04861763870870655,0.01185256312852467
0.40890890890890885,0.09476106122926575,0.04779152928427631,0.00902915670590191
0.40990990990990994,0.09463788030856692,0.04675925775565192,0.005979520052797812
0.4109109109109109,0.09440272873570422,0.04552566698812542,0.002782177891943246
0.4119119119119119,0.09405608368964528,0.04409645731095981,0.0004807084538134199
0.4129129129129129,0.09359854890956254,0.042478160575239385,0.0037254485454399837
0.41391391391391386,0.09303085380316416,0.040678110714187955,0.006868965592093726
0.41491491491491495,0.09235385241797951,0.03870441093673499,0.009830919731446057
0.4159159159159159,0.09156852227690768,0.036565897699140704,0.012535757654987717
0.4169169169169169,0.0906759630794854,0.03427210161283318,0.014914636380529242
0.4179179179179179,0.08967739527046903,0.031833205459288104,0.01690717227426306
0.41891891891891886,0.08857415847746636,0.029259999494721967,0.01846297096564175
0.41991991991991995,0.087367709819491,0.026563834238536015,0.019542899462184793
0.4209209209209209,0.08605962208844865,0.023756570949746484,0.02012006841198377
0.4219219219219219,0.0846515818056953,0.020850530005092707,0.020180499908559423
0.4229229229229229,0.0831453871559407,0.01785843740107418,0.019723464294633983
0.42392392392392386,0.08154294580089905,0.014793369609707827,0.018761477892212504
0.42492492492492495,0.07984627257521086,0.01166869702445511,0.017319962249559992
0.42592592592592593,0.07805748706728857,0.008498026238353006,0.015436574130330031
0.4269269269269269,0.07617881108785131,0.005295141400970871,0.013160223856352715
0.4279279279279279,0.07421256602903861,0.002073944904352926,0.010549807540119626
0.42892892892892887,0.07216117011710126,0.0011516023493956097,0.007672686004742437
0.42992992992992995,0.07002713556177871,0.004367540844826236,0.00460294960398593
0.43093093093093093,0.06781306560558546,0.0075599722597517295,0.001419513560870262
0.4319319319319319,0.06552165147631937,0.010715118928041674,0.0017959072961891017
0.4329329329329329,0.06315566924622093,0.013819382706716149,0.004960892512305412
0.433933933933934,0.06071797660129805,0.016859402998273817,0.007994425131519404
0.43493493493493496,0.0582115095244255,0.019822113683087228,0.010818962086898875
0.43593593593593594,0.05563927889591819,0.0226947987216158,0.013362413034641476
0.4369369369369369,0.053004367015363596,0.025465146192104965,0.015559977217924875
0.4379379379379379,0.05030992404857475,0.028121300536329795,0.01735579163493883
0.438938938938939,0.047559164403604935,0.030651912793806513,0.018704348660917306
0.43993993993993996,0.044755363039840554,0.03304618861364238,0.01957164721023933
0.44094094094094094,0.04190185171424409,0.03529393384283494,0.019936048369285704
0.4419419419419419,0.0390020151689006,0.037385597500314754,0.01978881400815979
0.4429429429429429,0.036059287264066445,0.03931231195727885,0.019134314995697593
0.443943943943944,0.03307714706097868,0.04106593015637992,0.017989904089874765
0.44494494494494496,0.030059114858733315,0.042639059715023145,0.016385457139243928
0.44594594594594594,0.027008748189587064,0.04402509377138344,0.014362594691933494
0.4469469469469469,0.023929637777075397,0.04521823844563876,0.011973604251647563
0.4479479479479479,0.020825403461379812,0.046213536803390985,0.009280091037798087
0.448948948948949,0.01769969009640535,0.04700688922312512,0.0063513920059047576
0.44994994994994997,0.01455616342305882,0.047595070084868636,0.003262793889610787
0.45095095095095095,0.011398505923233682,0.04797574071284032,9.36009850313852e-05
0.4519519519519519,0.008230412659038901,0.04814745852078803,0.0030748978135539135
0.4529529529529529,0.005055587101806178,0.04810968232481343,0.006161510695979984
0.453953953953954,0.0018777369554232504,0.04786277380471728,0.009087220113470114
0.45495495495495497,0.0012994300214492329,0.04740799511120972,0.011777202394291898
0.45595595595595595,0.004472210189736368,0.046747502632619765,0.014162738260586701
0.45695695695695693,0.007636908196332987,0.04588433695097389,0.016182965541621443
0.4579579579579579,0.010789841127986376,0.04482240903339879,0.017786429450840392
0.458958958958959,0.013927342648163584,0.04356648272068721,0.01893239100102743
0.45995995995996,0.017045767112406917,0.04212215359047458,0.019591860339876477
0.46096096096096095,0.020141493657715327,0.040495824287744904,0.019748328838248758
0.46196196196196193,0.023210930261507744,0.03869467643025605,0.019398181475007503
0.4629629629629629,0.0262505177657743,0.0367266392108743,0.018550779238424027
0.463963963963964,0.029256733862050716,0.03460035483269211,0.017228209696004707
0.464964964964965,0.032226097032894,0.03232514092610558,0.015464712357076292
0.46596596596596596,0.035155170445604206,0.029910950109676922,0.01330579374961104
0.46696696696696693,0.03804056579396288,0.02736832686859529,0.010807055043190397
0.4679679679679679,0.04087894708384301,0.024708361935765165,0.008032762372347232
0.468968968968969,0.04366703435859222,0.02194264437100706,0.005054196562592842
0.46996996996997,0.046401607360159886,0.019083211543467652,0.0019478245687756307
0.47097097097097096,0.04907950912201774,0.01614249723107455,0.001206660540247017
0.47197197197197194,0.05169764948998683,0.013133278058726777,0.004328380889914363
0.4729729729729729,0.05425300856717332,0.01006861850379385,0.007337344195557297
0.473973973973974,0.05674264007928921,0.006961814703450485,0.01015649032767399
0.474974974974975,0.05916367465673153,0.003826337303302194,0.012713661767737904
0.47597597597597596,0.06151332302987663,0.0006757735906975848,0.014943447647340666
0.47697697697697694,0.0637888791341416,0.0024762308409712374,0.016788854317743008
0.4779779779779779,0.06598772312146811,0.005616030648814638,0.01820275984999486
0.478978978978979,0.06810732427497941,0.008730039268853526,0.019149115403519525
0.47997997997998,0.07014524382366964,0.011804787167528624,0.019603862881689468
0.48098098098098097,0.07209913765409615,0.014826979568836756,0.019555545550882108
0.48198198198198194,0.07396675891614854,0.017783553411930438,0.01900559614931718
0.4829829829829829,0.07574596052009026,0.02066173329736888,0.017968295253347828
0.483983983983984,0.07743469752218543,0.023449086184588127,0.01647040109144104
0.484984984984985,0.07903102939633952,0.02613357460851009,0.014550460385109773
0.48598598598598597,0.0805331221893114,0.028703608189569095,0.012257817937648019
0.48698698698698695,0.08193925055717537,0.031148093218714902,0.009651350378132589
0.4879879879879879,0.08324779968084178,0.03345648010717232,0.0067979565040813174
0.488988988988989,0.084457267058577,0.035618808499826585,0.003770842872020886
0.48998998998999,0.08556626417359198,0.03762574986104612,0.0006476485032662503
0.49099099099099097,0.0865735180349081,0.03946864735249699,0.0024915433306013936
0.49199199199199195,0.08747787258984085,0.04113955283400492,0.005566255405657101
0.49299299299299304,0.08827829000658384,0.042631260830730044,0.00849767651564696
0.493993993993994,0.08897385182551312,0.04393733932279096,0.011210678465940954
0.494994994994995,0.0895637599779745,0.04505215722694736,0.013635738550159527
0.495995995995996,0.09004733767145805,0.045970908453968264,0.01571071838990383
0.49699699699699695,0.09042403014020803,0.04668963243982524,0.017382453693027804
0.49799799799799804,0.09069340526046221,0.04720523106378618,0.018608114319999525
0.498998998998999,0.09085515402965792,0.04751548188178533,0.01935629991785406
0.5,0.09090909090909091,0.047619047619047616,0.0196078431372549
